svm_type c_svc
kernel_type linear
nr_class 10
total_sv 131
rho 37.1084 -11.0405 4.48464 -4.45179 -2.05286 2.40188 -3.75998 -9.50986 5.70307 -0.55397 1.10402 -2.97596 -2.29894 -8.19316 -4.85761 -6.50842 -4.42633 6.44138 -4.51116 -5.9236 -0.861546 -3.06042 -2.1398 1.86038 -4.24648 -1.49015 -2.72997 -2.95716 -2.06293 -8.33628 -10.0328 2.51209 -2.90768 -3.45582 2.42668 6.87686 -4.58514 -3.03484 1.05409 -5.58371 -5.92006 3.81117 -4.63455 5.57722 8.24364
label 7 8 6 9 2 1 5 4 3 0
nr_sv 19 15 16 14 14 12 13 9 8 11
SV
0 0.1947302639884782 0.001458433711675744 0 0.005185203570530618 0.003165765600455998 0.001347754314716117 0 0 1:-27.73 2:-20.4 3:1.27 4:-20.4 5:15.27 6:-13.4 7:-19.73 8:4.6 9:-29.73 10:-14.4 11:-13.86 12:-10.2 13:3.57 14:-10.2 15:10.64 16:-6.7 17:-9.86 18:10.86 19:-17.59 20:-7.2 
0 0.03441107306028848 0 0 0 0 0 0 0 1:1.68 2:-42.81 3:29.68 4:-25.81 5:28.68 6:-17.81 7:-36.32 8:-1.81 9:-16.32 10:-36.81 11:0.84 12:-21.4 13:17.93 14:-12.9 15:17.43 16:-8.9 17:-18.16 18:9.57 19:-10.96 20:-18.4 
0 0 0 0.001057214835075653 0.00731236975104861 0 0.004467153819086722 0.005307661620742062 0 1:-13.4 2:-39 3:8.6 4:-33 5:31.6 6:-25 7:30.6 8:10 9:-38.4 10:2 11:-6.7 12:-19.5 13:7.55 14:-16.5 15:19.16 16:-12.5 17:15.3 18:15.37 19:-22.15 20:1 
0.4044188379109502 0 0 0 0 0.009373086454320972 0 0 0 1:0.08 2:-39.27 3:27.08 4:-26.27 5:21.08 6:16.73 7:-34.92 8:-1.27 9:-16.92 10:-36.27 11:0.04 12:-19.63 13:16.67 14:-13.13 15:13.64 16:8.37 17:-17.46 18:9.3 19:-11.31 20:-18.13 
0 0 0.01468852301213921 0 0 0 0 0 0 1:-1.19 2:-16.68 3:18.81 4:-7.68 5:17.81 6:16.32 7:11.81 8:22.32 9:-6.19 10:19.32 11:-0.6 12:-8.34 13:12.76 14:-3.84 15:12.26 16:8.16 17:5.9 18:22.99 19:-6.27 20:9.66 
1.69357372016218 0 0 0 0 0.03523477734482255 0.00366788646526072 0 0.01104284888753669 1:-1.89 2:-20.2 3:1.11 4:-20.2 5:17.11 6:-14.2 7:20.11 8:-5.2 9:-30.89 10:-12.2 11:-0.94 12:-10.1 13:3.54 14:-10.1 15:11.62 16:-7.1 17:10.06 18:5.01 19:-18.21 20:-6.1 
0 0 0 0 0 0 0 0.003010179174892698 0.0551913007232334 1:-1.88 2:-41.19 3:24.12 4:-27.19 5:22.12 6:18.81 7:-37.88 8:5.81 9:-19.88 10:-32.19 11:-0.94 12:-20.59 13:15.19 14:-13.59 15:14.18 16:9.41 17:-18.94 18:8.65 19:-12.79 20:-16.09 
0 0.005641035816308059 0 0 0 0 0 0 0 1:-12.75 2:-36.52 3:24.25 4:-19.52 5:26.25 6:-11.52 7:22.25 8:7.48 9:-35.75 10:-2.52 11:-6.38 12:-18.26 13:15.21 14:-9.76 15:16.22 16:-5.76 17:11.12 18:14.23 19:-20.61 20:-1.26 
0 0.0412591196513094 0 0.004445935310473229 0 0 0 0 0 1:-3.72 2:-27.23 3:12.28 4:-22.23 5:23.28 6:-16.23 7:25.28 8:-12.23 9:-36.72 10:-4.23 11:-1.86 12:-13.61 13:9.39 14:-11.11 15:14.94 16:-8.11 17:12.64 18:3.74 19:-21.31 20:-2.11 
0 0 0 0 0 0.001025625131380489 0.002797879524116449 0.00418990658665931 0.04743705785257699 1:-25.4 2:-22.91 3:1.6 4:-21.91 5:17.6 6:-12.91 7:-13.4 8:18.09 9:-28.4 10:-18.91 11:-12.7 12:-11.46 13:3.79 14:-10.96 15:11.87 16:-6.46 17:-6.7 18:18.09 19:-16.98 20:-9.46 
1.396064543189934 0.08584399056756183 0.03449238815155423 0.0004707802570141084 0 0 0 0 0.0628243672587344 1:-3.58 2:-14.17 3:10.42 4:-13.17 5:17.42 6:-10.17 7:-34.58 8:3.83 9:-34.58 10:-4.17 11:-1.79 12:-7.08 13:8.44 14:-6.58 15:11.98 16:-5.08 17:-17.29 18:12.6 19:-20.23 20:-2.08 
0 0 0 0 0 0 0 0 0.006552014728848892 1:-0.65 2:-18.04 3:17.35 4:-10.04 5:20.35 6:-1.04 7:-15.65 8:17.96 9:-21.65 10:-7.04 11:-0.33 12:-9.02 13:11.97 14:-5.02 15:13.49 16:-0.52 17:-7.83 18:19.98 19:-13.86 20:-3.52 
1.749368181039249 0.06632149068761795 0.005815179359795094 0 0.00694613902139216 0.01084666212692513 0 0 0.02996881770785473 1:-3.49 2:-13.97 3:9.51 4:-11.97 5:17.51 6:-6.97 7:19.51 8:0.03 9:14.51 10:16.03 11:-1.74 12:-6.98 13:7.86 14:-5.98 15:11.9 16:-3.48 17:9.76 18:11.7 19:4.19 20:8.02 
0.9860620635685006 0 0 0 0 0 0 0 0 1:-2.32 2:-41.85 3:25.68 4:-25.85 5:26.68 6:-14.85 7:-41.32 8:6.15 9:-21.32 10:-34.85 11:-1.16 12:-20.93 13:15.94 14:-12.93 15:16.45 16:-7.43 17:-20.66 18:10.65 19:-13.47 20:-17.43 
0 0 0 0.0142730617669526 0 0 0 0 0 1:-13.56 2:-31.92 3:11.44 4:-20.92 5:21.44 6:-13.92 7:22.44 8:11.08 9:-37.56 10:-0.92 11:-6.78 12:-15.96 13:8.75 14:-10.46 15:13.8 16:-6.96 17:11.22 18:12.25 19:-21.51 20:-0.46 
1.051294643574278 0.0517816533479793 0.003060652518019885 0 0 0.01949084597451535 0.0007894438612995973 0.009638468086119225 0 1:0.08 2:-39.27 3:27.08 4:-26.27 5:21.08 6:16.73 7:-34.92 8:-1.27 9:-16.92 10:-36.27 11:0.04 12:-19.63 13:16.67 14:-13.13 15:13.64 16:8.37 17:-17.46 18:9.3 19:-11.31 20:-18.13 
0 0 0 0 0 0 0.007047539640073618 0 0 1:1.41 2:-46.07 3:28.41 4:-29.07 5:30.41 6:-25.07 7:-38.59 8:1.93 9:-18.59 10:-38.07 11:0.71 12:-23.04 13:17.34 14:-14.54 15:18.35 16:-12.54 17:-19.29 18:9.12 19:-12.13 20:-19.04 
0 0 0 0 0 0 0 0.0005398014945207173 0 1:4.18 2:-24.23 3:8.18 4:-23.23 5:20.18 6:-10.23 7:22.18 8:0.77 9:-27.82 10:-17.23 11:2.09 12:-12.11 13:7.32 14:-11.61 15:13.38 16:-5.11 17:11.09 18:7.79 19:-16.9 20:-8.61 
3.013896057459332 0 0.007432167954873704 0.006160521723945323 0.0031415054054984 0.004727064622902275 0 0.01726592391316617 0 1:-2.54 2:-39.76 3:23.46 4:-26.76 5:19.46 6:31.24 7:-35.54 8:6.24 9:-20.54 10:-29.76 11:-1.27 12:-19.88 13:14.98 14:-13.38 15:12.96 16:15.62 17:-17.77 18:8.43 19:-13.23 20:-14.88 
-0 0.00615065246155465 0 0.002025210223157583 0.007058185160110031 0.00620801920812377 0.005271197732248056 0.0007954214721869961 0.0470012644351259 1:-2.22 2:-38.13 3:10.78 4:-33.13 5:24.78 6:-25.13 7:-38.22 8:8.87 9:-19.22 10:-30.13 11:-1.11 12:-19.06 13:8.73 14:-16.56 15:15.8 16:-12.56 17:-19.11 18:13.41 19:-12.74 20:-15.06 
-1.289843625898614 0.007762104551595039 0.003622968737874976 0.001462517701081315 0.00329948459192181 0 2.783117593972757e-005 0 0.00663835546771427 1:-3.68 2:-22.34 3:10.32 4:-20.34 5:15.32 6:5.66 7:14.32 8:10.66 9:-21.68 10:17.66 11:-1.84 12:-11.17 13:8.31 14:-10.17 15:10.83 16:2.83 17:7.16 18:14.21 19:-13.77 20:8.83 
-0 0.01147923186618059 0 0 0 0 0 0 0 1:-2.69 2:-25.47 3:15.31 4:-17.47 5:18.31 6:-0.47 7:-17.69 8:6.53 9:-17.69 10:-8.47 11:-1.35 12:-12.73 13:10.95 14:-8.73 15:12.47 16:-0.23 17:-8.85 18:11.99 19:-11.91 20:-4.23 
-2.132268596364045 0 0 0 0 0.04916468803303713 0 0 0 1:-0.68 2:-24.47 3:15.32 4:-14.47 5:17.32 6:-4.47 7:-15.68 8:-15.47 9:-12.68 10:-20.47 11:-0.34 12:-12.24 13:10.96 14:-7.24 15:11.97 16:-2.24 17:-7.84 18:0.3 19:-9.43 20:-10.24 
-0 0 0 0 0 0 0 0 0.09248348759498887 1:-3.63 2:-25.03 3:7.37 4:-25.03 5:18.37 6:4.97 7:-17.63 8:2.97 9:-16.63 10:-13.03 11:-1.81 12:-12.51 13:6.97 14:-12.51 15:12.53 16:2.49 17:-8.81 18:10.15 19:-11.42 20:-6.51 
-0 0 0 0.0003354987116631106 0.002160224724341593 0.006940089426552843 0.005244203128566523 0.009744491735484639 0 1:-0.94 2:-40.58 3:28.06 4:-25.58 5:-38.94 6:11.42 7:-20.94 8:-32.58 9:-18.94 10:-34.58 11:-0.47 12:-20.29 13:17.41 14:-12.79 15:-16.43 16:5.71 17:-10.47 18:-9.49 19:-12.56 20:-17.29 
-1.454260023108633 0 0.005834128207390345 0 0 0.002353770270523718 0.003394466200620201 0.002173401850289101 0.01049492761220238 1:-3.01 2:-23.56 3:14.99 4:-14.56 5:16.99 6:-4.56 7:16.99 8:8.44 9:-17.01 10:-8.56 11:-1.51 12:-11.78 13:10.77 14:-7.28 15:11.78 16:-2.28 17:8.49 18:13.37 19:-11.56 20:-4.28 
-0 0 0 0 0.005478870142099696 0 0 0 0.035389799373745 1:-2.74 2:-23.66 3:16.26 4:-2.66 5:-16.74 6:2.34 7:-16.74 8:-11.66 9:-10.74 10:-20.66 11:-1.37 12:-11.83 13:11.48 14:-1.33 15:-5.18 16:1.17 17:-8.37 18:2.37 19:-8.52 20:-10.33 
-2.674931647234461 0 0 0 0 0 0 0 0 1:0.61 2:-27.14 3:12.61 4:-23.14 5:21.61 6:3.86 7:-30.39 8:-1.14 9:-13.39 10:-22.14 11:0.3 12:-13.57 13:9.55 14:-11.57 15:14.1 16:1.93 17:-15.2 18:8.04 19:-9.75 20:-11.07 
-0 0 0 0 0.0004079663342854358 0 0 0 0.007249340805634919 1:-1.43 2:-42.62 3:28.57 4:-26.62 5:-38.43 6:12.38 7:-38.43 8:9.38 9:-19.43 10:-34.62 11:-0.71 12:-21.31 13:17.61 14:-13.31 15:-16.23 16:6.19 17:-19.21 18:13.76 19:-12.73 20:-17.31 
-0 0 0 0.001313240536171111 0 0 0 0 0 1:3.19 2:-30.34 3:19.19 4:-25.34 5:-37.81 6:3.66 7:-37.81 8:1.66 9:-16.81 10:-24.34 11:1.6 12:-15.17 13:13.08 14:-12.67 15:-15.7 16:1.83 17:-18.9 18:10.1 19:-11.65 20:-12.17 
-0 0.01700790785864319 0 0 0 0 0 0 0 1:-4.5 2:-24.57 3:12.5 4:-17.57 5:15.5 6:-5.57 7:-17.5 8:-7.57 9:-15.5 10:-17.57 11:-2.25 12:-12.29 13:9.57 14:-8.79 15:11.08 16:-2.79 17:-8.75 18:4.73 19:-10.87 20:-8.79 
-0 0 0 0.004098512290283414 0 0.04783085742865661 0.0001480070584933063 0 0 1:-2.5 2:-28.01 3:7.5 4:-25.01 5:16.5 6:4.99 7:-17.5 8:-6.01 9:-16.5 10:-14.01 11:-1.25 12:-14 13:7.08 14:-12.5 15:11.62 16:2.5 17:-8.75 18:5.42 19:-11.39 20:-7 
-0 0 0.01014404858905023 0 0 0 0 0 0 1:-2.89 2:-24.75 3:12.11 4:-17.75 5:17.11 6:-1.75 7:-17.89 8:-8.75 9:-16.89 10:-13.75 11:-1.45 12:-12.37 13:9.32 14:-8.87 15:11.85 16:-0.87 17:-8.95 18:4.07 19:-11.51 20:-6.87 
-2.74337415429865 0 0 0 0 0.004154845023025528 0.005162495226724218 0.01554827116043466 0 1:-5.17 2:-40.17 3:23.83 4:-28.17 5:20.83 6:18.83 7:-39.17 8:10.83 9:-24.17 10:-30.17 11:-2.58 12:-20.09 13:15.34 14:-14.09 15:13.83 16:9.41 17:-19.58 18:13.5 19:-15.2 20:-15.09 
-0.1630810389179813 -0.003872612106843999 0 0 0 0.002766639355259992 0 0.0003055659808334839 0.05734464260408273 1:-2.82 2:-19.49 3:0.18 4:-19.49 5:10.18 6:-6.49 7:-31.82 8:2.51 9:-9.82 10:-17.49 11:-1.41 12:-9.75 13:2.93 14:-9.75 15:7.98 16:-3.25 17:-15.91 18:14.29 19:-7.64 20:-8.75 
-0 -0 0 0 0 0 0 0 0.04360701454390506 1:-24.9 2:-22.71 3:-0.9 4:25.29 5:-5.9 6:23.29 7:-20.9 8:14.29 9:-26.9 10:-16.71 11:-12.45 12:-11.35 13:2.27 14:12.65 15:-0.26 16:11.65 17:-10.45 18:22.03 19:-15.99 20:-8.35 
-0 -0 0.03162465218186621 0.00405955071706236 0 0 0 0 0 1:-7.07 2:-22.31 3:5.93 4:-19.31 5:7.93 6:-18.31 7:12.93 8:-8.31 9:-36.07 10:7.69 11:-3.54 12:-11.15 13:5.9 14:-9.65 15:6.91 16:-9.15 17:6.46 18:8.43 19:-20.71 20:3.85 
-0 -0 0 0 0.00244720091471381 0 0 0 0 1:-23.47 2:-19.45 3:-21.47 4:-19.45 5:5.53 6:-11.45 7:25.53 8:-5.45 9:43.53 10:3.55 11:-11.73 12:-9.73 13:-8.3 14:-9.73 15:5.33 16:-5.73 17:12.77 18:11.78 19:19.06 20:1.77 
-0.02122320886408274 -0.01223965577350154 0.07371900402342543 0 0 0 0 0 0.006351717993213485 1:-3.68 2:-7.9 3:2.32 4:-7.9 5:7.32 6:7.1 7:-7.68 8:7.1 9:-7.68 10:-4.9 11:-1.84 12:-3.95 13:4.72 14:-3.95 15:7.24 16:3.55 17:-3.84 18:18.47 19:-7.27 20:-2.45 
-0 -0 0 0 0.00684641272401671 0 0 0 0 1:-12.38 2:-24.81 3:3.62 4:-20.81 5:7.62 6:-17.81 7:14.62 8:-8.81 9:-34.38 10:15.19 11:-6.19 12:-12.41 13:4.73 14:-10.41 15:6.75 16:-8.91 17:7.31 18:7.56 19:-19.87 20:7.59 
-0 -0 0 0.005604413876397987 0 0 0 0 0 1:-19.17 2:-23.85 3:-17.17 4:-23.85 5:23.83 6:-7.85 7:-17.17 8:11.15 9:-20.17 10:-21.85 11:-9.59 12:-11.92 13:-5.9 14:-11.92 15:14.8 16:-3.92 17:-8.59 18:21.28 19:-12.7 20:-10.92 
-0 -0 0 7.58622673856952e-005 0 0 0 0 0 1:-21.19 2:-20.82 3:-19.19 4:-20.82 5:-3.19 6:18.18 7:-18.19 8:9.18 9:-21.19 10:6.18 11:-10.59 12:-10.41 13:-7.09 14:-10.41 15:0.99 16:9.09 17:-9.09 18:19.72 19:-13.04 20:3.09 
-0 -0 0 0.0005653910004910241 0 0 0.002284779338769964 0.0008334989998612284 0 1:-25.19 2:-29.6 3:-23.19 4:-29.6 5:30.81 6:-10.6 7:-29.19 8:0.4 9:-26.19 10:-27.6 11:-12.59 12:-14.8 13:-9.01 14:-14.8 15:18.26 16:-5.3 17:-14.59 18:15.45 19:-15.61 20:-13.8 
-0 -0 0 0 0 0.001405834100787192 0 0 0 1:-15.8 2:-25.17 3:23.2 4:-7.17 5:24.2 6:-6.17 7:-17.8 8:-23.17 9:-16.8 10:-24.17 11:-7.9 12:-12.59 13:14.3 14:-3.59 15:14.81 16:-3.09 17:-8.9 18:2.81 19:-10.85 20:-12.09 
-0 -0.003704640025922693 0 0 0.02813198055071556 0.001543947277058742 0 0 0 1:-17.28 2:-23.81 3:-15.28 4:-23.81 5:26.72 6:-1.81 7:27.72 8:-0.81 9:-21.28 10:2.19 11:-8.64 12:-11.9 13:-5.45 14:-11.9 15:15.76 16:-0.9 17:13.86 18:14.41 19:-12.75 20:1.1 
-0 -0.003261703027635472 0 0.001519706765925402 0.01295764420265167 0.002287209773282799 0.001358266586197036 0.001102616979034203 0 1:-17.78 2:-29.3 3:40.22 4:-0.3 5:-23.78 6:2.7 7:-26.78 8:-4.3 9:-19.78 10:-27.3 11:-8.89 12:-14.65 13:22.56 14:-0.15 15:-9.76 16:1.35 17:-13.39 18:12.65 19:-12 20:-13.65 
-0 -0 0.03145555753974713 0 0 0 0 0 0 1:-19.98 2:-20.15 3:12.02 4:-6.15 5:27.02 6:3.85 7:-21.98 8:-15.15 9:-20.98 10:-19.15 11:-9.99 12:-10.07 13:8.76 14:-3.07 15:16.33 16:1.93 17:-10.99 18:5.88 19:-13.02 20:-9.57 
-0.1392612250452515 -0 0.02236401529566651 0 0 0 0 0 0 1:-34.23 2:-13.91 3:6.77 4:-1.91 5:9.77 6:-0.91 7:13.77 8:2.09 9:-37.23 10:-9.91 11:-17.11 12:-6.96 13:6.68 14:-0.96 15:8.19 16:-0.46 17:6.89 18:12.46 19:-21.62 20:-4.96 
-0.1564231542922285 -0.01735986934143217 0 0.0004599988826689371 0.01333606544955784 0.001109785447718703 0.003627974258966426 0.0005042348806982038 0.1075564541054498 1:-5.56 2:-36.69 3:24.44 4:-35.69 5:35.44 6:-21.69 7:-25.56 8:-4.69 9:-25.56 10:-6.69 11:-2.78 12:-18.34 13:15.47 14:-17.84 15:21.02 16:-10.84 17:-12.78 18:8.78 19:-15.72 20:-3.34 
-0 -0.001961416462637565 0 0 0.0001291712203741524 0.001369292384485849 0 0 0.01218607662650161 1:-18.13 2:-25.85 3:-0.13 4:20.15 5:-5.13 6:19.15 7:-20.13 8:4.15 9:-19.13 10:-22.85 11:-9.06 12:-12.93 13:2.73 14:10.07 15:0.21 16:9.57 17:-10.06 18:16.02 19:-12.21 20:-11.43 
-0 -0 -0.008884722548657992 0 0.0002798261800186722 0.0004675275614746056 0 0 0 1:-10.95 2:-15.3 3:23.05 4:-12.3 5:31.05 6:-11.3 7:44.05 8:-4.3 9:-16.95 10:-11.3 11:-5.47 12:-7.65 13:14.45 14:-6.15 15:18.49 16:-5.65 17:22.03 18:8.22 19:-11.14 20:-5.65 
-0.0354523949987021 -0 -0.03741901553365672 0 0 0 0 0 0.01962418397850225 1:-4.55 2:-17.42 3:19.45 4:-16.42 5:43.45 6:-10.42 7:-24.55 8:-4.42 9:-21.55 10:-8.42 11:-2.28 12:-8.71 13:12.64 14:-8.21 15:24.76 16:-5.21 17:-12.28 18:8.12 19:-13.43 20:-4.21 
-0 -0.001118409308944787 -0 0 2.261080266199419e-005 0 0.0002296065163150192 0 0 1:-5.93 2:-17.57 3:23.07 4:-14.57 5:32.07 6:-13.57 7:39.07 8:-11.57 9:-23.93 10:-1.57 11:-2.96 12:-8.79 13:14.44 14:-7.29 15:18.98 16:-6.79 17:19.54 18:3.68 19:-14.58 20:-0.79 
-0 -0 -0.02108541069030634 0 0 0 0 0 0.00689676712550756 1:-9.75 2:-14.85 3:-13.75 4:25.15 5:-16.75 6:23.15 7:-21.75 8:9.15 9:-23.75 10:3.15 11:-4.88 12:-7.42 13:-4.2 14:12.58 15:-5.71 16:11.58 17:-10.88 18:15.28 19:-14.45 20:1.58 
-0 -0 -0 0 0 0.0004099012718008579 0 0 0.0008817648559820033 1:22.13 2:-16.8 3:-14.87 4:32.2 5:-25.87 6:19.2 7:-28.87 8:4.2 9:-20.87 10:-6.8 11:11.06 12:-8.4 13:-4.76 14:16.1 15:-10.31 16:9.6 17:-14.44 18:12.94 19:-13.04 20:-3.4 
-0 -0 -0.001191182253517034 0 0 0 0 0 0 1:-8.72 2:-16.08 3:28.28 4:-15.08 5:51.28 6:-11.08 7:-22.72 8:-2.08 9:-16.72 10:-11.08 11:-4.36 12:-8.04 13:17.11 14:-7.54 15:28.73 16:-5.54 17:-11.36 18:8.12 19:-11.05 20:-5.54 
-0 -0 -0 0 0.000152929603773275 0 0 0 0 1:-11.55 2:-14.79 3:-2.55 4:-14.79 5:29.45 6:-13.79 7:42.45 8:-9.79 9:-20.55 10:-4.79 11:-5.78 12:-7.39 13:1.54 14:-7.39 15:17.71 16:-6.89 17:21.22 18:5.58 19:-12.95 20:-2.39 
-0 -0.001306798394972692 -0 0 0.0001969444557488764 0.0004834086051085414 0 0 0 1:24.4 2:-14.62 3:-16.6 4:29.38 5:-28.6 6:8.38 7:-20.6 8:-7.62 9:-15.6 10:-10.62 11:12.2 12:-7.31 13:-5.62 14:14.69 15:-11.68 16:4.19 17:-10.3 18:6.6 19:-10.43 20:-5.31 
-0 -0 -0 0 0 0 0 0 0.0004020583142423939 1:-11.13 2:-14.89 3:-14.13 4:25.11 5:-16.13 6:25.11 7:-24.13 8:1.11 9:-21.13 10:-4.89 11:-5.56 12:-7.45 13:-4.37 14:12.55 15:-5.38 16:12.55 17:-12.06 18:10.63 19:-13.17 20:-2.45 
-0 -0.005267265349423959 -0 0 0.0003983860786421467 0.001796400367847163 0.000320499880852498 0.0003940108802538589 0.003969435186466254 1:7.45 2:-19.04 3:27.45 4:-14.04 5:55.45 6:-4.04 7:-25.55 8:-7.04 9:-11.55 10:-17.04 11:3.73 12:-9.52 13:16.92 14:-7.02 15:31.06 16:-2.02 17:-12.77 18:4.93 19:-8.71 20:-8.52 
-0.005809523294074533 -0 -0 0.0002129415766255619 0 0 0 0 0 1:25.82 2:-15.05 3:-17.18 4:29.95 5:-29.18 6:10.95 7:-29.18 8:4.95 9:-21.18 10:-8.05 11:12.91 12:-7.52 13:-5.97 14:14.98 15:-12.03 16:5.48 17:-14.59 18:13.24 19:-13.14 20:-4.02 
-0.004812672516963397 -0.007725113434027441 -0.05378898110803649 0.00668066730382581 0.005885771273667119 0.002893924154426918 0.002564604369808421 0.0002456828184599871 0.00539246541710735 1:-17.2 2:-20.29 3:0.8 4:-19.29 5:16.8 6:-9.29 7:19.8 8:-7.29 9:-29.2 10:-10.29 11:-8.6 12:-10.14 13:3.6 14:-9.64 15:11.68 16:-4.64 17:9.9 18:4.97 19:-17.59 20:-5.14 
-0 -0 -0.01448184078726612 0 0 0 0 0 0 1:-10.18 2:27.19 3:-22.18 4:8.19 5:-23.18 6:5.19 7:-14.18 8:-9.81 9:16.82 10:-16.81 11:-5.09 12:13.59 13:-8.55 14:4.09 15:-9.06 16:2.59 17:-7.09 18:6.35 19:5.73 20:-8.41 
-0.02087275389831778 -0.004183559046946675 -0.02231207611926458 2.546535461804133e-005 0.001713922222000106 0.0006428014768282841 0 0.0005165712145076169 0.01062369569098864 1:-11.43 2:-14.19 3:22.57 4:-14.19 5:-11.43 6:26.81 7:-16.43 8:24.81 9:-21.43 10:10.81 11:-5.71 12:-7.09 13:14.14 14:-7.09 15:-3.03 16:13.41 17:-8.21 18:24.07 19:-13.3 20:5.41 
-0.005786078213868684 -0.002322901738190037 -0.00956430484672848 -0 0.001679365999130854 0.001694830945352351 0.004235657750523013 0.002664661625802939 0.005458461520084581 1:-11.42 2:-29.13 3:-8.42 4:-28.13 5:9.58 6:-10.13 7:-12.42 8:8.87 9:-26.42 10:-18.13 11:-5.71 12:-14.57 13:-1.1 14:-14.07 15:7.99 16:-5.07 17:-6.21 18:15.78 19:-16.17 20:-9.07 
-0.01476975856530118 -0.0007459170937167926 -0.002073918055606056 -0.002081294499572363 0.04208686397112971 0.002277215367247319 0.001276704107723421 0 0.0004245167605901413 1:-12.61 2:-40.68 3:18.39 4:-12.68 5:21.39 6:-8.68 7:25.39 8:-2.68 9:-41.61 10:-1.68 11:-6.3 12:-20.34 13:12.56 14:-6.34 15:14.07 16:-4.34 17:12.7 18:8.62 19:-23.8 20:-0.84 
-0 -0 -0 -0 0 0.003395725081752721 0 0 0.002130806111968567 1:14.13 2:-37.32 3:19.13 4:-34.32 5:22.13 6:17.68 7:-33.87 8:-10.32 9:-34.87 10:-14.32 11:7.06 12:-18.66 13:13.14 14:-17.16 15:14.66 16:8.84 17:-16.94 18:5.58 19:-20.68 20:-7.16 
-3.216485294222276e-005 -0 -0 -0.00475456614468258 0 0 0 0 0 1:-12.11 2:-27.86 3:-11.11 4:-27.86 5:10.89 6:-9.86 7:14.89 8:-3.86 9:-29.11 10:-16.86 11:-6.06 12:-13.93 13:-2.48 14:-13.93 15:8.63 16:-4.93 17:7.44 18:10.23 19:-17.48 20:-8.43 
-0 -0 -0 -0 0.02895607648723219 0 0 0.0001006322237822008 0 1:1 2:-43.47 3:9 4:-43.47 5:27 6:-6.47 7:-44 8:-9.47 9:-44 10:-17.47 11:0.5 12:-21.74 13:7.8 14:-21.74 15:16.89 16:-3.24 17:-22 18:6.2 19:-24.97 20:-8.74 
-0 -0.001609282717983199 -0 -0 0 0 0 0.00190911962630536 0.0002967117378648239 1:15.04 2:-30.96 3:18.04 4:-29.96 5:-15.96 6:12.04 7:-30.96 8:-14.96 9:-30.96 10:-18.96 11:7.52 12:-15.48 13:12.21 14:-14.98 15:-4.96 16:6.02 17:-15.48 18:2.81 19:-18.37 20:-9.48 
-0.00581951226134884 -0 -0 -0 0.005660591986046454 0 0.0004951410049798166 0 0 1:9.31 2:-37.82 3:12.31 4:-36.82 5:22.31 6:15.18 7:-15.69 8:15.18 9:-33.69 10:-11.82 11:4.66 12:-18.91 13:9.52 14:-18.41 15:14.57 16:7.59 17:-7.84 18:18.93 19:-19.91 20:-5.91 
-0 -0 -0 -0 0 0 0.00243637045049418 0 0.001069560613245209 1:9.15 2:-39.63 3:15.15 4:-39.63 5:16.15 6:-37.63 7:-37.85 8:-10.63 9:-36.85 10:-14.63 11:4.58 12:-19.81 13:11.04 14:-19.81 15:11.55 16:-18.81 17:-18.92 18:5.65 19:-21.57 20:-7.31 
-0 -0.0008649474614260594 -0.000122346844759804 -0 0.08994099013375452 0.001612207679708224 0 0.000928755299915631 0.0008772349673654593 1:10.6 2:-40.57 3:-24.4 4:10.43 5:-35.4 6:-9.57 7:-33.4 8:-15.57 9:8.6 10:-39.57 11:5.3 12:-20.28 13:-8.83 14:5.22 15:-14.39 16:-4.78 17:-16.7 18:3.36 19:0.84 20:-19.78 
-0 -0 -0 -0 0 0 0 0.001195982785824962 0 1:12.28 2:-40.74 3:16.28 4:-37.74 5:-37.72 6:-11.74 7:-35.72 8:-15.74 9:-34.72 10:-16.74 11:6.14 12:-20.37 13:11.89 14:-18.87 15:-15.38 16:-5.87 17:-17.86 18:3.02 19:-20.78 20:-8.37 
-0 -0.003691930451040448 -0 -0 0 0 0 0 0 1:5.46 2:-34.71 3:9.46 4:-31.71 5:23.46 6:3.29 7:-25.54 8:2.29 9:-32.54 10:-8.71 11:2.73 12:-17.35 13:8.16 14:-15.85 15:15.23 16:1.65 17:-12.77 18:12.03 19:-19.42 20:-4.35 
-0 -0 -0.0005243537628370645 -8.32135908144711e-005 0 0 0 0 0.0007619010453291008 1:4.92 2:-36.74 3:29.92 4:0.26 5:-13.08 6:15.26 7:-37.08 8:-7.74 9:-39.08 10:-9.74 11:2.46 12:-18.37 13:18.27 14:0.13 15:-3.45 16:7.63 17:-18.54 18:7.18 19:-22.45 20:-4.87 
-0 -0 -0 -0 0 0 0 0.0004774235247497346 0 1:3.59 2:-38.65 3:8.59 4:-37.65 5:-41.41 6:-9.65 7:-42.41 8:-13.65 9:-41.41 10:-14.65 11:1.8 12:-19.32 13:7.43 14:-18.82 15:-17.83 16:-4.82 17:-21.2 18:5.75 19:-23.52 20:-7.32 
-0 -0 -0 -0 0.1070606121529415 0 0 0.0001323173826649847 0 1:-4.53 2:-35.11 3:-1.53 4:-34.11 5:-33.53 6:-6.11 7:-33.53 8:-9.11 9:-32.53 10:-10.11 11:-2.26 12:-17.56 13:2.3 14:-17.06 15:-13.87 16:-3.06 17:-16.76 18:7.53 19:-19.11 20:-5.06 
-0.001236401311151128 -0 -0.04000173795023512 -0.007385653288372662 -0 0.01061552046877129 0.002621303611830776 0 0.002716173060822763 1:-16.5 2:-29.84 3:7.5 4:-13.84 5:15.5 6:-3.84 7:16.5 8:-0.84 9:-19.5 10:-2.84 11:-8.25 12:-14.92 13:6.95 14:-6.92 15:10.99 16:-1.92 17:8.25 18:10.71 19:-12.75 20:-1.42 
-0 -0 -0 -0 -0.04413955705566863 0 0 0.008743509025503443 0.003216151450979755 1:1.89 2:-48.99 3:5.89 4:-46.99 5:-29.11 6:5.01 7:-29.11 8:-15.99 9:-0.11 10:-47.99 11:0.95 12:-24.49 13:5.89 14:-23.49 15:-11.79 16:2.51 17:-14.55 18:2.58 19:-2.91 20:-23.99 
-0.001002287786406276 -0 -0 -0 -0 0 0.004246580950299733 0 0 1:-1.98 2:-42.65 3:0.02 4:-42.65 5:2.02 6:-41.65 7:-28.98 8:-4.65 9:-4.98 10:-40.65 11:-0.99 12:-21.32 13:3.66 14:-21.32 15:4.67 16:-20.82 17:-14.49 18:9.43 19:-6.04 20:-20.32 
-0 -0.005709433068878981 -0 -0 -0 0.01284509317430117 0.0004672526373766585 0 0.005340449337392068 1:0.83 2:-44.83 3:25.83 4:10.17 5:-18.17 6:15.17 7:-25.17 8:-3.83 9:-3.17 10:-41.83 11:0.42 12:-22.41 13:15.95 14:5.09 15:-6.28 16:7.59 17:-12.58 18:9.24 19:-4.41 20:-20.91 
-0.01448263273787786 -0.001805105507502196 -0.004746453767727385 -0 -0 0 0 0 0 1:-20.17 2:-28.84 3:11.83 4:-16.84 5:16.83 6:-9.84 7:20.83 8:8.16 9:-15.17 10:8.16 11:-10.08 12:-14.42 13:9.05 14:-8.42 15:11.57 16:-4.92 17:10.42 18:15.18 19:-10.52 20:4.08 
-0 -0 -0 -0 -0.1043274408601785 0 0 0 0 1:-0.28 2:-40.97 3:-23.28 4:2.03 5:-24.28 6:-1.97 7:-25.28 8:-9.97 9:-24.28 10:-13.97 11:-0.14 12:-20.49 13:-8.82 14:1.01 15:-9.33 16:-0.99 17:-12.64 18:6.8 19:-14.89 20:-6.99 
-0 -0 -0 -0 -0 0 0.002673172131762853 0 0 1:-2.19 2:-45.43 3:1.81 4:-43.43 5:25.81 6:8.57 7:-24.19 8:-2.43 9:-24.19 10:-9.43 11:-1.09 12:-22.71 13:3.78 14:-21.71 15:15.9 16:4.29 17:-12.09 18:9.95 19:-14.78 20:-4.71 
-0.004789729736822117 -0.003411812974441516 -0.008026576585872029 -0 -0 0.001505734686581661 0 0 0.007286749799366458 1:-4.79 2:-40.84 3:-0.79 4:-40.84 5:25.21 6:10.16 7:-22.79 8:-9.84 9:-20.79 10:-13.84 11:-2.4 12:-20.42 13:2.64 14:-20.42 15:15.77 16:5.08 17:-11.4 18:6.65 19:-13.27 20:-6.92 
-0.001074166176212407 -0.007181845835905244 -0.01107370675819521 -0.0003194346076561524 -0.07370446997003113 0.007781928020360307 0 0.006269166524742995 0.01041527569804209 1:-5.64 2:-32.56 3:0.36 4:-32.56 5:1.36 6:-31.56 7:-23.64 8:-1.56 9:-25.64 10:-9.56 11:-2.82 12:-16.28 13:3.1 14:-16.28 15:3.6 16:-15.78 17:-11.82 18:11.42 19:-15.55 20:-4.78 
-0 -0 -0 -0.0009453027204833744 -0.007530296797254332 0.001479182764837531 0 0.005743147461011957 0 1:-4.15 2:-32.65 3:-1.15 4:-31.65 5:-13.15 6:16.35 7:-20.15 8:-7.65 9:-19.15 10:-10.65 11:-2.08 12:-16.32 13:2.45 14:-15.82 15:-3.61 16:8.18 17:-10.08 18:7.12 19:-12.45 20:-5.32 
-0 -0 -0 -0 -0 2.247477642259078e-005 0 0 0 1:3.46 2:-38.52 3:-17.54 4:16.48 5:-18.54 6:13.48 7:-19.54 8:7.48 9:-17.54 10:-15.52 11:1.73 12:-19.26 13:-5.89 14:8.24 15:-6.4 16:6.74 17:-9.77 18:14.54 19:-11.59 20:-7.76 
-0 -0.0002965335660306289 -0 -0 -0.04568273604710257 0 0.0004495929032304172 0.004341971237193544 0.003613065357059457 1:2.41 2:-43.46 3:20.41 4:-5.46 5:-23.59 6:4.54 7:-26.59 8:-13.46 9:-25.59 10:-15.46 11:1.2 12:-21.73 13:13.68 14:-2.73 15:-8.54 16:2.27 17:-13.3 18:4.1 19:-15.97 20:-7.73 
-0.03313729613984063 -0 -0 -0.003610179453035249 -0.0003939493237228034 -0.002114289716734162 0.003311532609827651 0 0 1:-5.21 2:-29.57 3:8.79 4:-22.57 5:15.79 6:-0.57 7:17.79 8:10.43 9:-19.21 10:-16.57 11:-2.61 12:-14.79 13:7.67 14:-11.29 15:11.21 16:-0.29 17:8.89 18:14.62 19:-12.68 20:-8.29 
-0 -0 -0 -0 -0 -0 0 0.002154729631508222 0 1:-3.57 2:-32.78 3:10.43 4:-19.78 5:17.43 6:9.22 7:-19.57 8:-16.78 9:-17.57 10:-23.78 11:-1.79 12:-16.39 13:8.45 14:-9.89 15:11.98 16:4.61 17:-9.79 18:-0.11 19:-11.81 20:-11.89 
-0 -0 -0 -0 -0.001261853519430987 -0 0 0 0 1:-0.78 2:-32.89 3:18.22 4:7.11 5:-11.78 6:10.11 7:-16.78 8:-13.89 9:-18.78 10:-24.89 11:-0.39 12:-16.45 13:12.23 14:3.55 15:-2.92 16:5.05 17:-8.39 18:1.74 19:-12.27 20:-12.45 
-0 -0 -0 -0 -0 -0 0.004367328659796594 0.0005680523908829883 0 1:-3.58 2:-33.45 3:11.42 4:-25.45 5:15.42 6:-0.45 7:-18.58 8:-18.45 9:-17.58 10:-22.45 11:-1.79 12:-16.72 13:8.78 14:-12.72 15:10.8 16:-0.22 17:-9.29 18:-1.32 19:-11.66 20:-11.22 
-0 -0.006529415793470959 -0.00305270480198846 -0 -0 -0.01699646559235677 5.891129205577263e-005 0 0.01536145820968519 1:-3.86 2:-27.85 3:16.14 4:0.15 5:-16.86 6:-5.85 7:-15.86 8:-18.85 9:-12.86 10:-22.85 11:-1.93 12:-13.93 13:11.4 14:0.07 15:-5.27 16:-2.93 17:-7.93 18:-1.19 19:-9.55 20:-11.43 
-0.000348026296337373 -0 -0 -0 -0 -0 0 0 0 1:-1.76 2:-30.2 3:11.24 4:-17.2 5:18.24 6:9.8 7:-18.76 8:-14.2 9:-17.76 10:-20.2 11:-0.88 12:-15.1 13:8.79 14:-8.6 15:12.33 16:4.9 17:-9.38 18:0.75 19:-11.85 20:-10.1 
-0.01082868960425773 -0.02892181946920749 -0 -0 -0 -0 0 0 0.01075545901518114 1:-4.22 2:-27.79 3:9.78 4:-23.79 5:16.78 6:1.21 7:-18.22 8:-16.79 9:-17.22 10:-21.79 11:-2.11 12:-13.9 13:8.21 14:-11.9 15:11.75 16:0.6 17:-9.11 18:0.05 19:-11.74 20:-10.9 
-0 -0.003501080534958176 -0.003526413815457456 -0 -0.001712736527290804 -0.01513917858218363 0 0.002525983033743936 0.02804779570148871 1:-3.17 2:-35.62 3:9.83 4:-20.62 5:16.83 6:4.38 7:-12.17 8:16.38 9:-19.17 10:-18.62 11:-1.58 12:-17.81 13:7.93 14:-10.31 15:11.46 16:2.19 17:-6.08 18:17.18 19:-12.39 20:-9.31 
-0 -0 -0.002591759850810736 -0 -0 -0 0 0 0.01111862910556533 1:-4.61 2:-29.33 3:7.39 4:-21.33 5:16.39 6:5.67 7:-16.61 8:-6.33 9:-17.61 10:-20.33 11:-2.31 12:-14.66 13:6.59 14:-10.66 15:11.14 16:2.84 17:-8.31 18:7.74 19:-11.53 20:-10.16 
-0 -0.0123752112502516 -0 -0 -0.005611439703616022 -0 0 0 0 1:-3.33 2:-33.2 3:11.67 4:-23.2 5:16.67 6:0.8 7:-17.33 8:-9.2 9:-18.33 10:-18.2 11:-1.67 12:-16.6 13:8.87 14:-11.6 15:11.39 16:0.4 17:-8.67 18:3.64 19:-11.99 20:-9.1 
-0.03954981521488706 -0.06532474234203137 -0 -0 -0 -0 0 0 0 1:-0.66 2:-29.95 3:11.34 4:-18.95 5:16.34 6:0.05 7:-17.66 8:-8.95 9:-17.66 10:-19.95 11:-0.33 12:-14.98 13:8.96 14:-9.48 15:11.49 16:0.02 17:-8.83 18:4.34 19:-11.92 20:-9.98 
-0 -0 -0 -0 -0 -0 0 0 0.01188043450881536 1:-5.3 2:-28.34 3:14.7 4:-2.34 5:-12.3 6:10.66 7:-17.3 8:-15.34 9:-17.3 10:-22.34 11:-2.65 12:-14.17 13:10.49 14:-1.17 15:-3.15 16:5.33 17:-8.65 18:1.37 19:-11.57 20:-11.17 
-0 -0 -0.001311829870336623 -0.00308378398445112 -0 -0 0 0 0 1:-4.22 2:-28.4 3:15.78 4:0.6 5:16.78 6:4.6 7:-19.22 8:-18.4 9:-18.22 10:-22.4 11:-2.11 12:-14.2 13:11.19 14:0.3 15:11.7 16:2.3 17:-9.61 18:-0.61 19:-12.18 20:-11.2 
-0 -0 -0 -0 -0.001225354943336681 -0 -0 0 0 1:-12.69 2:-37.88 3:5.31 4:-35.88 5:22.31 6:-24.88 7:26.31 8:-20.88 9:-32.69 10:-19.88 11:-6.35 12:-18.94 13:5.7 14:-17.94 15:14.28 16:-12.44 17:13.15 18:-3.31 19:-19.14 20:-9.94 
-0 -0.006551155168810731 -0.002286100340444891 -0 -0 -0 -0.001432249227716129 0.002154678265489339 0 1:-7.89 2:-36.36 3:14.11 4:-34.36 5:25.11 6:-20.36 7:-25.89 8:-24.36 9:-22.89 10:-30.36 11:-3.95 12:-18.18 13:10.43 14:-17.18 15:15.98 16:-10.18 17:-12.95 18:-3.7 19:-14.57 20:-15.18 
-0.006874200586228497 -0 -0 -0.002734237499396596 -0 -0 -0.003356059239131124 0 0 1:-9.53 2:-33.13 3:10.47 4:-31.13 5:21.47 6:-18.13 7:22.47 8:-13.13 9:-26.53 10:-18.13 11:-4.77 12:-16.57 13:8.31 14:-15.57 15:13.87 16:-9.07 17:11.23 18:0.52 19:-16.1 20:-9.07 
-0.01253473088847966 -0 -0.003601179438348796 -0 -0 -0 -0 0 0.003058781286103686 1:-8.13 2:-38.12 3:8.87 4:-35.12 5:23.87 6:-22.12 7:-23.13 8:11.88 9:-26.13 10:-24.12 11:-4.06 12:-19.06 13:7.57 14:-17.56 15:15.15 16:-11.06 17:-11.56 18:15.47 19:-15.96 20:-12.06 
-0 -0.002991980697999153 -0 -0 -0 -0.002649593312558244 -0.000432472756249181 0.009854872451331027 0.006896427531243858 1:-8.45 2:-41.05 3:8.55 4:-37.05 5:22.55 6:-26.05 7:-29.45 8:-22.05 9:-10.45 10:-40.05 11:-4.22 12:-20.53 13:7.29 14:-18.53 15:14.36 16:-13.03 17:-14.72 18:-3.81 19:-8.09 20:-20.03 
-0 -0 -0.0004401677841779199 -0 -0.0001916696682335859 -0 -0 0 0 1:-7.64 2:-38.7 3:7.36 4:-35.7 5:23.36 6:-22.7 7:-24.64 8:-20.7 9:-25.64 10:-25.7 11:-3.82 12:-19.35 13:6.72 14:-17.85 15:14.8 16:-11.35 17:-12.32 18:-1.81 19:-15.64 20:-12.85 
-0.0007087261498450675 -0.009705064655782152 -0.0009435726209618188 -0.000380473267579342 -0.001245854404363852 -0.002237727220574308 -0.002516991338583585 0.02061249671664392 0.006043481198748199 1:-10.09 2:-38.21 3:20.91 4:-24.21 5:-14.09 6:23.79 7:-16.09 8:17.79 9:-28.09 10:-25.21 11:-5.04 12:-19.1 13:13.48 14:-12.1 15:-4.19 16:11.9 17:-8.04 18:18.53 19:-16.77 20:-12.6 
-0 -0 -0 -0 -0 -0.001394911296324531 -0 0 0 1:-9.1 2:-37.98 3:6.9 4:-34.98 5:8.9 6:-33.98 7:21.9 8:-23.98 9:-26.1 10:-22.98 11:-4.55 12:-18.99 13:6.4 14:-17.49 15:7.41 16:-16.99 17:10.95 18:-3.51 19:-15.77 20:-11.49 
-0 -0 -0 -0 -0.005780994297786312 -0.004175670405043353 -0 0 0.0102337841900678 1:-7.73 2:-37.72 3:8.27 4:-33.72 5:20.27 6:-23.72 7:-19.73 8:6.28 9:-24.73 10:-22.72 11:-3.86 12:-18.86 13:7.23 14:-16.86 15:13.29 16:-11.86 17:-9.86 18:12.45 19:-15.23 20:-11.36 
-0.005997052620920974 -0 -0 -0.0005258320421293911 -0 -0.004604581636780071 -0.001930669319530393 -0 0 1:-3.05 2:-39.04 3:13.95 4:-34.04 5:20.95 6:19.96 7:-16.05 8:16.96 9:-22.05 10:-22.04 11:-1.53 12:-19.52 13:10.03 14:-17.02 15:13.57 16:9.98 17:-8.03 18:17.46 19:-13.85 20:-11.02 
-0.000519769252016974 -0.01240508949228565 -0 -0 -0 -0 -0 -0.005345738553210441 0 1:-2.47 2:-44.95 3:26.53 4:-26.95 5:-24.47 6:14.05 7:-26.47 8:9.05 9:-22.47 10:-35.95 11:-1.23 12:-22.47 13:16.4 14:-13.47 15:-9.36 16:7.03 17:-13.23 18:13.97 19:-14.06 20:-17.97 
-0.009047585433524468 -0 -0.0002583533158535885 -0.0003716295512613058 -0.002074554592093683 -0 -0 -0.006252469058345509 0 1:-5.88 2:-36.81 3:12.12 4:-31.81 5:23.12 6:22.19 7:-19.88 8:22.19 9:-24.88 10:-22.81 11:-2.94 12:-18.4 13:9.49 14:-15.9 15:15.04 16:11.1 17:-9.94 18:20.51 19:-15.61 20:-11.4 
-0.002845136940580689 -0.009160889421450619 -0 -0 -0 -0 -0 -0 0 1:-3.41 2:-38.32 3:14.59 4:-33.32 5:20.59 6:19.68 7:-24.41 8:-23.32 9:-23.41 10:-30.32 11:-1.7 12:-19.16 13:10.68 14:-16.66 15:13.71 16:9.84 17:-12.2 18:-3.52 19:-14.83 20:-15.16 
-0.02154239662905707 -0.006103251736968253 -0.001584508137814848 -0 -0 -0 -0.001583274813527559 -0.01009861260595625 0 1:-7.14 2:-42.39 3:18.86 4:-25.39 5:21.86 6:9.61 7:-25.14 8:-0.39 9:-23.14 10:-34.39 11:-3.57 12:-21.2 13:12.38 14:-12.7 15:13.9 16:4.8 17:-12.57 18:8.87 19:-14.26 20:-17.2 
-0 -0.0005923555676908674 -0.000903055386758682 -0 -0.005334337876952131 -0.01382125592094768 -0.0007133697850889477 -0.003852092383380014 0.02169002446848468 1:-2.3 2:-35.28 3:1.7 4:-33.28 5:-30.3 6:-10.28 7:-30.3 8:-14.28 9:-19.3 10:-31.28 11:-1.15 12:-17.64 13:3.61 14:-16.64 15:-12.55 16:-5.14 17:-15.15 18:0.44 19:-12.25 20:-15.64 
-0 -0 -0 -0 -0 -0 -0.001021451137988247 -0 0.01054427628893901 1:-1 2:-40.48 3:15 4:-33.48 5:18 6:12.52 7:-20 8:-14.48 9:-21 10:-32.48 11:-0.5 12:-20.24 13:10.32 14:-16.74 15:11.84 16:6.26 17:-10 18:0.51 19:-13.09 20:-16.24 
-0 -0 -0 -0.0002588033198307663 -0 -0.006671956690724186 -0 -0.007073134832572082 0.02102877937045057 1:-3.93 2:-39.35 3:12.07 4:-34.35 5:-16.93 6:3.65 7:-19.93 8:-12.35 9:-21.93 10:-25.35 11:-1.96 12:-19.67 13:8.94 14:-17.17 15:-5.7 16:1.83 17:-9.96 18:1.73 19:-13.65 20:-12.67 
-0 -0 -0.05969640473719772 -0 -0 -0 -0 -0 -0 1:-5.6 2:-37.17 3:8.4 4:-34.17 5:17.4 6:-25.17 7:-32.6 8:9.83 9:-19.6 10:-30.17 11:-2.8 12:-18.58 13:7.35 14:-17.08 15:11.9 16:-12.58 17:-16.3 18:14.5 19:-12.75 20:-15.08 
-0.001996724352111612 -0.02963478019833411 -0 -0 -0.002186089219164392 -0.01197574566281727 -0.02081548856691563 -0.004585537726937043 -0.02996415750535612 1:-0.28 2:-40.77 3:10.72 4:-36.77 5:-36.28 6:5.23 7:-17.28 8:-32.77 9:-15.28 10:-34.77 11:-0.14 12:-20.39 13:8.41 14:-18.39 15:-15.33 16:2.61 17:-8.64 18:-7.79 19:-10.5 20:-17.39 
-0 -0 -0.0746866029498208 -0 -0 -0 -0 -0 -0 1:-10.82 2:-25.13 3:13.18 4:-9.13 5:18.18 6:0.87 7:-22.82 8:-1.13 9:-20.82 10:-13.13 11:-5.41 12:-12.56 13:9.86 14:-4.56 15:12.38 16:0.44 17:-11.41 18:9.36 19:-13.44 20:-6.56 
-0.01521129939869568 -0 -0.09266289818613412 -0.01826656440445831 -0.00115001498102669 -0 -0 -0 -0.001441528332302245 1:-8.88 2:-24.85 3:12.12 4:-10.85 5:19.12 6:2.15 7:-22.88 8:2.15 9:-22.88 10:-0.85 11:-4.44 12:-12.42 13:9.11 14:-5.42 15:12.65 16:1.08 17:-11.44 18:10.55 19:-14.25 20:-0.42 
-0 -0 -0 -0 -0 -0 -0 -0 -0.00606264819751467 1:-8.34 2:-23.44 3:12.66 4:-8.44 5:-15.34 6:8.56 7:-20.34 8:1.56 9:-18.34 10:-16.44 11:-4.17 12:-11.72 13:9.24 14:-4.22 15:-4.9 16:4.28 17:-10.17 18:10 19:-11.86 20:-8.22 
-0.1068849774897055 -0 -0 -0.01247123334755314 -0.004668506901620288 -0 -0 -0.002545744364683596 -0.002618657841050939 1:-8.71 2:-20.41 3:6.29 4:-16.41 5:18.29 6:2.59 7:-15.71 8:3.59 9:-20.71 10:-8.41 11:-4.35 12:-10.21 13:6.04 14:-8.21 15:12.11 16:1.29 17:-7.85 18:11.44 19:-13.06 20:-4.21 
-0 -0.05063070849205933 -0 -0 -0 -0.01231548002085362 -0 -0 -0 1:-7.97 2:-23.95 3:14.03 4:-6.95 5:19.03 6:2.05 7:-16.97 8:7.05 9:-20.97 10:-1.95 11:-3.98 12:-11.98 13:9.91 14:-3.48 15:12.44 16:1.02 17:-8.48 18:12.97 19:-13.15 20:-0.98 
-0 -0 -0 -0 -0 -0 -0.05528165185890129 -0.004448970206281593 -0 1:-7.67 2:-23.31 3:13.33 4:-8.31 5:19.33 6:1.69 7:-15.67 8:8.69 9:-18.67 10:-14.31 11:-3.84 12:-11.66 13:9.57 14:-4.16 15:12.6 16:0.84 17:-7.84 18:13.9 19:-12.02 20:-7.16 
-0.04566101103212172 -0 -0 -0.01705257281678498 -0 -0 -0 -0 -0 1:-5.19 2:-17.83 3:16.81 4:-1.83 5:18.81 6:7.17 7:-15.19 8:13.17 9:-23.19 10:-8.83 11:-2.6 12:-8.91 13:11.51 14:-0.91 15:12.52 16:3.59 17:-7.6 18:16.29 19:-14.44 20:-4.41 
-0.04326239488615062 -0.04006223564843843 -0 -0 -0.003014581654636511 -0.008296639019991706 -0 -0.01465222190826132 -0.01317608825165031 1:-4.77 2:-41.28 3:10.23 4:-38.28 5:22.23 6:-28.28 7:-34.77 8:11.72 9:-21.77 10:-30.28 11:-2.38 12:-20.64 13:8.24 14:-19.14 15:14.3 16:-14.14 17:-17.38 18:15.6 19:-13.78 20:-15.14 
-0 -0.07892945095057947 -0 -0 -0 -0 -0.001066636114918831 -0 -0 1:-2.42 2:-21.76 3:5.58 4:-16.76 5:18.58 6:4.24 7:-15.42 8:8.24 9:-15.42 10:-16.76 11:-1.21 12:-10.88 13:5.65 14:-8.38 15:12.22 16:2.12 17:-7.71 18:13.43 19:-10.41 20:-8.38 
