svm_type c_svc
kernel_type linear
nr_class 10
total_sv 92
rho 29.5294 -11.8928 15.9834 14.536 19.185 31.3629 0.140327 44.3588 27.1807 -4.66025 2.21199 7.46488 8.7744 14.8034 6.25129 0.605078 26.2753 8.26783 7.04104 6.28856 23.1366 27.1025 20.7607 11.8067 0.318609 -28.3968 -12.0615 -9.31272 -0.73223 -53.1904 -19.5144 -3.50186 -6.84712 -0.491423 -15.371 16.4996 -6.49895 -4.20392 12.6631 -40.3854 -11.1323 4.46077 37.2764 12.194 2.56383
label 2 7 6 4 3 8 9 1 5 0
nr_sv 11 15 3 9 5 10 10 10 11 8
SV
0.0009719741690825943 0 0 0 0 0.0003028317567517571 0 0.0004969949357311635 0.0003102153441205281 1:322 2:172 3:325 4:173 5:291 6:215 7:276 8:188 9:276 10:184 11:306.9605 12:202.9608 13:314.4803 14:187.4804 15:319.172 16:187.9804 17:302.0002 18:208.9804 19:291.4803 20:205.7688 21:288.5943 22:193.4804 
0 0 0 0 0 0 0.007139349478847533 0 0 1:318 2:177 3:343 4:214 5:300 6:229 7:276 8:206 9:274 10:204 11:313.0841 12:213.7384 13:315.5421 14:195.3692 15:331.3556 16:213.8692 17:309.6384 18:221.3692 19:294.5421 20:220.9149 21:290.6357 22:208.8692 
0 6.920183015467851e-005 0 0 0 0 0 0 0 1:309 2:207 3:314 4:208 5:264 6:236 7:263 8:232 9:264 10:231 11:305.4055 12:245.6466 13:307.2028 14:226.3233 15:312.8311 16:226.8233 17:287.5786 18:240.8233 19:284.2028 20:251.3929 21:281.8839 22:238.3233 
0 6.871625563996234e-005 0 0 0 0 0 0 0 1:360 2:180 3:369 4:181 5:379 6:230 7:309 8:213 9:309 10:206 11:349.8209 12:220.4343 13:354.9104 14:200.2171 15:363.0408 16:200.7171 17:368.0913 18:225.2171 19:329.4104 20:228.1233 21:326.149 22:213.2171 
0.002099697323725747 0 3.542849966232847e-005 0.0002351977038672578 7.719749824480147e-005 0 0 0 0.0005225956668199191 1:333 2:155 3:337 4:155 5:351 6:207 7:284 8:187 9:283 10:185 11:321.6406 12:194.0411 13:327.3203 14:174.5205 15:332.6468 16:174.5205 17:339.7175 18:200.5205 19:302.8203 20:200.5479 21:299.3271 22:189.5205 
0 0 0 0 0 0 0.03164501855266567 0 0 1:299 2:199 3:302 4:200 5:270 6:228 7:270 8:225 9:271 10:224 11:303.5255 12:234.1128 13:301.2628 14:216.5564 15:305.821 16:217.0564 17:289.6593 18:231.0564 19:286.7628 20:241.6383 21:284.4186 22:229.0564 
0 0 0 0 0 0 0.06621045684038174 0 3.623851972806344e-005 1:356 2:179 3:321 4:230 5:310 6:210 7:312 8:204 9:354 10:180 11:345.3951 12:219.5661 13:350.6975 14:199.2831 15:336.5631 16:224.7831 17:331.0076 18:214.7831 19:328.6975 20:222.9295 21:346.2352 22:199.7831 
0.007109325811063297 0.000362121585277753 0 0 0 0.0001645432132895709 0 0.0003413475323954909 0.0002221499254304685 1:301 2:182 3:304 4:183 5:322 6:201 7:300 8:220 9:286 10:193 11:312.421 12:211.1316 13:306.7105 14:196.5658 15:311.3237 16:197.0658 17:320.4146 18:206.0658 19:306.2105 20:226.9113 21:296.248 22:202.0658 
0.00895522109884849 0 0.0001948006972680718 8.421552659100776e-005 0.0003311452074691275 4.531951829579642e-005 0.02858083915721122 0.0002385662775316087 0.0004725139361981209 1:311 2:150 3:342 4:178 5:345 6:182 7:349 8:188 9:282 10:189 11:323.6094 12:190.6847 13:317.3047 14:170.3423 15:336.1664 16:184.3423 17:337.6815 18:186.3423 19:336.3047 20:199.3077 21:299.8066 22:189.8423 
0 0 0 0 0 0 0.0230226245616529 0 0 1:323 2:169 3:331 4:169 5:349 6:206 7:278 8:203 9:278 10:195 11:322.0049 12:212.475 13:322.5024 14:190.7375 15:329.8004 16:190.7375 17:338.8914 18:209.2375 19:300.0024 20:218.671 21:297.0321 22:203.7375 
0 0.0004676758155065468 0 0 0 0 0 0 -0 1:301 2:216 3:259 4:240 5:258 6:239 7:258 8:237 9:261 10:235 11:298.8303 12:251.4107 13:299.9151 14:233.7053 15:281.7325 16:245.7053 17:281.2274 18:245.2053 19:278.4151 20:257.0583 21:277.1437 22:243.2053 
-0 0.0003062193187229491 0 0 0 0 0.0007348921958544001 0 0 1:281 2:159 3:318 4:176 5:320 6:184 7:316 8:203 9:258 10:193 11:293.7539 12:195.5157 13:287.377 14:177.2578 15:308.9666 16:185.7578 17:309.9767 18:189.7578 19:304.877 20:209.7451 21:273.1455 22:194.2578 
-0 0 0.007284774616660155 0 0.01998634491736243 0 0 0 0.01320388591948441 1:292 2:99 3:320 4:115 5:321 6:126 7:253 8:147 9:273 10:106 11:294.3199 12:140.8513 13:293.1599 14:119.9256 15:310.2625 16:127.9256 17:310.7676 18:133.4256 19:273.6599 20:151.5007 21:280.8514 22:123.4256 
-0.003254878615124867 0 0.005886294690852973 0.001590290443707498 0 0 0 0 0 1:304 2:153 3:326 4:159 5:349 6:167 7:348 8:202 9:279 10:194 11:317.4034 12:191.9969 13:310.7017 14:172.4984 15:324.9512 16:175.4984 17:336.5674 18:179.4984 19:332.7017 20:207.3668 21:295.2492 22:192.9984 
-0 0 0 0 0.05192634506155209 0 0 0 0 1:320 2:116 3:324 4:117 5:336 6:130 7:338 8:141 9:288 10:123 11:315.8216 12:140.2281 13:317.9108 14:128.1141 15:323.1422 16:128.6141 17:329.2028 18:135.1141 19:326.9108 20:148.0148 21:298.9215 22:131.6141 
-0 0 0.00660688881092535 0.001222104757907037 0.001274115292036634 0.008404510436877012 0 0.01578579023783975 0.003870477820187987 1:293 2:127 3:296 4:127 5:312 6:133 7:315 8:142 9:264 10:135 11:294.8876 12:147.1977 13:293.9438 14:137.0988 15:298.4281 16:137.0988 17:306.5089 18:140.0988 19:304.9438 20:152.2093 21:276.6771 22:141.0988 
-0.001214330826950136 0 0 0 0 0.001897089256920885 0 0 0.01261427306031003 1:311 2:187 3:325 4:188 5:332 6:191 7:280 8:205 9:280 10:197 11:314.5765 12:201.1691 13:312.7882 14:194.0846 15:323.0184 16:194.5846 17:326.5538 18:196.0846 19:297.2882 20:213.7732 21:294.3448 22:199.0846 
-0 0 0 0.003732736340451019 0.006718437915003738 0 0 0 0 1:307 2:58 3:333 4:71 5:329 6:129 7:274 8:104 9:289 10:68 11:309.5382 12:97.76062 13:308.2691 14:77.88031 15:324.5143 16:84.38031 17:322.494 18:113.3803 19:291.7691 20:106.1898 21:296.3061 22:82.88031 
-0 0 0.004283762866822257 0.0003637519096648933 0.007218352569689914 0.002131819921619545 3.845686735508621e-005 0.002574250900425265 0.01387944579501542 1:270 2:140 3:297 4:141 5:313 6:150 7:282 8:181 9:267 10:144 11:295.3961 12:162.9126 13:282.6981 14:151.4563 15:299.1899 16:151.9563 17:307.2708 18:156.4563 19:288.6981 20:181.0066 21:278.4139 22:153.4563 
-0.003769689073207231 0 0 0.006399544860576487 0 0.003547696396776457 0 0.009307065928754233 0.00447271223854096 1:296 2:150 3:323 4:163 5:317 6:206 7:261 8:188 9:279 10:153 11:295.9194 12:189.2661 13:295.9597 14:169.6331 15:312.5856 16:176.1331 17:309.5553 18:197.6331 19:278.4597 20:198.5611 21:284.6136 22:171.1331 
-0.003391254676583333 0.0006232934481631191 0 0.0003799790272644855 0.0504820839944737 0.003538841520039332 0.003632939289434506 0.008805496557969908 0.008566245726006217 1:322 2:197 3:342 4:206 5:341 6:230 7:335 8:236 9:317 10:233 11:323.1935 12:213.6825 13:322.5968 14:205.3412 15:335.9563 16:209.8412 17:335.4513 18:221.8412 19:329.0968 20:236.675 21:316.9275 22:223.3412 
-0.002046136119801672 0 0 0 0 0 0 0 0 1:324 2:172 3:338 4:178 5:340 6:190 7:338 8:212 9:279 10:190 11:315.8058 12:198.2908 13:319.9029 14:185.1454 15:330.2049 16:188.1454 17:331.215 18:194.1454 19:326.9029 20:215.9425 21:294.4583 22:194.1454 
-0 0 0 0 0 0 0.001431735099975608 3.287990999735547e-005 0.008554417791942571 1:293 2:157 3:321 4:174 5:320 6:182 7:255 8:198 9:275 10:163 11:291.3185 12:199.807 13:292.1593 14:178.4035 15:309.2518 16:186.9035 17:308.7467 18:190.9035 19:273.1593 20:209.3721 21:280.3557 22:181.4035 
-0 0 0 0 0 0 0 0 0.003198397587389217 1:317 2:182 3:335 4:190 5:338 6:199 7:302 8:218 9:296 10:193 11:317.6503 12:200.0436 13:317.3251 14:191.0218 15:329.6213 16:195.0218 17:331.1365 18:199.5218 19:309.8251 20:220.023 21:303.7873 22:196.5218 
-0 0 0 0 0 0 0 0.008029661393325872 0 1:296 2:65 3:322 4:79 5:320 6:125 7:260 8:112 9:278 10:74 11:297.8785 12:106.1892 13:296.9392 14:85.59459 15:313.0699 16:92.59459 17:312.0598 18:115.5946 19:278.9392 20:114.8364 21:285.0883 22:90.09459 
-0.005459929091052887 0 0 0 0 0.002547122700577388 0.0006719230269722783 0 0 1:312 2:166 3:328 4:171 5:339 6:177 7:341 8:181 9:279 10:189 11:315.7247 12:193.2258 13:313.8623 14:179.6129 15:325.1135 16:182.1129 17:330.669 18:185.1129 19:328.3623 20:196.961 21:294.4182 22:191.1129 
-0.0004196678280007398 -0.0009295127668860682 5.789649044553175e-005 6.040520732374542e-005 7.181070718481204e-005 0.000101233916590173 0.000472461938891323 9.501083503147416e-005 0.0001544433118210228 1:288 2:202 3:329 4:214 5:332 6:215 7:336 8:218 9:285 10:206 11:322.2256 12:215.9129 13:305.1128 14:208.9565 15:328.9018 16:214.9565 17:330.417 18:215.4565 19:329.1128 20:228.3752 21:300.6067 22:210.9565 
-0.0005480476585782005 -0 0 0 0 8.580066370055544e-005 0.0003488953820410246 0.0001046328382558756 0 1:278 2:227 3:281 4:227 5:291 6:240 7:249 8:249 9:271 10:229 11:280.8165 12:246.4927 13:279.4082 14:236.7464 15:283.7457 16:236.7464 17:288.7962 18:243.2464 19:264.9082 20:260.7856 21:273.1765 22:237.7464 
-0 -0 0 0 0 7.196708449460483e-005 0 0 0 1:188 2:262 3:238 4:284 5:184 6:287 7:184 8:284 9:186 10:264 11:205.952 12:284.8001 13:196.976 14:273.4001 15:224.2182 16:284.4001 17:196.9455 18:285.9001 19:194.976 20:299.3685 21:194.0357 22:274.4001 
-0 -0.01039551751696675 -0 0 0.0002536967928594402 0 0 0 0 1:295 2:135 3:310 4:138 5:325 6:150 7:284 8:188 9:276 10:149 11:303.049 12:172.7938 13:299.0245 14:153.8969 15:309.6207 16:155.3969 17:317.1964 18:161.3969 19:293.5245 20:189.8915 21:286.6579 22:160.8969 
-0 -0 -0 0.0005277635299610299 0 0 0 0.0006028101478001722 0 1:286 2:107 3:303 4:111 5:317 6:122 7:265 8:126 9:284 10:108 11:294.4467 12:148.0517 13:290.2233 14:127.5258 15:301.7407 16:129.5258 17:308.8114 18:135.0258 19:279.7233 20:144.2377 21:286.3597 22:128.0258 
-0.0001717184764682708 -0 -2.918274476490253e-005 0 0.001677680168080966 0.002068849132951217 0 0.0003996618866763039 0 1:320 2:137 3:337 4:139 5:339 6:140 7:354 8:152 9:300 10:153 11:329.3016 12:175.1896 13:324.6508 14:156.0948 15:336.516 16:157.0948 17:337.5261 18:157.5948 19:341.6508 20:172.205 21:311.5355 22:164.0948 
-0 -2.426387896710005e-005 -0 0.0005761333189354901 0 0.0001113130955345706 0 0.001784906124249029 0 1:282 2:135 3:298 4:139 5:313 6:151 7:264 8:154 9:264 10:144 11:289.0766 12:172.8808 13:285.5383 14:153.9404 15:296.5033 16:155.9404 17:304.0791 18:161.9404 19:276.5383 20:172.0425 21:273.8003 22:158.4404 
-0 -0 -0 0 0 0.0001349030107157226 0 0.0009126552210126271 0 1:290 2:134 3:305 4:137 5:321 6:150 7:273 8:152 9:272 10:147 11:297.6405 12:172.7004 13:293.8203 14:153.3502 15:304.3639 16:154.8502 17:312.4447 18:161.3502 19:285.3203 20:170.895 21:282.0002 22:159.8502 
-0 -0.005183069230541543 -0 0 0.003078019119794532 0 0 0 0.004320766876811866 1:294 2:136 3:310 4:140 5:322 6:150 7:282 8:180 9:277 10:151 11:301.7263 12:173.7164 13:297.8632 14:154.8582 15:308.9527 16:156.8582 17:315.0133 18:161.8582 19:291.8632 20:186.1665 21:286.4982 22:162.3582 
-5.851072046212953e-005 -0 -2.871374568062922e-005 0.0003323262519339582 0 0.0004055800392538894 0.0001581314628228528 0 0.0002806407163145404 1:279 2:139 3:295 4:143 5:309 6:155 7:271 8:201 9:260 10:152 11:286.3597 12:178.82 13:282.6799 14:158.91 15:293.616 16:160.91 17:300.6867 18:166.91 19:278.6799 20:199.9053 21:270.4751 22:165.41 
-0 -0 -0 0 0 0.000474387724618796 0 0 0 1:277 2:138 3:293 4:141 5:310 6:153 7:260 8:156 9:259 10:149 11:287.0753 12:179.8827 13:282.0376 14:158.9413 15:292.9673 16:160.4413 17:301.5532 18:166.4413 19:273.5376 20:176.7804 21:270.3343 22:164.4413 
-0 -0.00845887035878534 -0 2.850057016849152e-005 0 0 0 0 0 1:286 2:108 3:304 4:110 5:321 6:121 7:325 8:125 9:266 10:126 11:298.692 12:145.8818 13:292.346 14:126.9409 15:304.3899 16:127.9409 17:312.9757 18:133.4409 19:311.846 20:142.5694 21:279.5505 22:135.9409 
-0 -0.005740038690411868 -0 -0.0006080924037648925 0 0 0 0.0011492221471743 0 1:271 2:114 3:287 4:121 5:290 6:167 7:252 8:140 9:251 10:122 11:272.0032 12:154.4849 13:271.5016 14:134.2424 15:282.3248 16:137.7424 17:283.84 18:160.7424 19:262.0016 20:154.992 21:258.9125 22:138.2424 
-0 -0.0005588849159133034 -0 -0.0003803395102204226 0.001050649251069859 0 0 0.001085661911998759 0.0003844394142730056 1:270 2:116 3:274 4:118 5:242 6:141 7:242 8:137 9:253 10:120 11:272.298 12:151.284 13:271.149 14:133.642 15:275.9081 16:134.642 17:259.7465 18:146.142 19:257.149 20:151.7284 21:260.0485 22:135.642 
-0 -0.0001769155443104256 -0 -0 0 0 0 0 0 1:278 2:117 3:294 4:122 5:265 6:160 7:262 8:144 9:260 10:131 11:281.9294 12:156.3469 13:279.9647 14:136.6734 15:290.8734 16:139.1734 17:276.227 18:158.1734 19:271.9647 20:158.0773 21:268.2819 22:143.6734 
-0.0001426004666583967 -0 -4.04109825428497e-005 -0 0 0.000953910813710387 0.0001709793835718397 0.000802605250796123 0.001633636146784385 1:303 2:135 3:318 4:141 5:324 6:193 7:284 8:181 9:284 10:143 11:305.2949 12:174.3991 13:304.1474 14:154.6995 15:314.7954 16:157.6995 17:317.8257 18:183.6995 19:294.6474 20:187.0522 21:291.7301 22:158.6995 
-0.0001768127637998688 -0.007212568188935827 -1.999422478089571e-005 -0.0004762917570136545 0.003272999174071082 0 0 0.002083552039499702 0 1:327 2:131 3:345 4:136 5:356 6:190 7:313 8:190 9:308 10:145 11:332.8762 12:167.805 13:329.9381 14:149.4025 15:342.3617 16:151.9025 17:347.9173 18:178.9025 19:322.9381 20:188.3184 21:317.2655 22:156.4025 
-0 -0 -0 -0 -0.001018756165595381 0 6.437314680715513e-005 6.277880584971401e-005 0.0003362508596383972 1:313 2:125 3:343 4:141 5:276 6:180 7:276 8:177 9:295 10:133 11:314.4286 12:167.6189 13:313.7143 14:146.3095 15:332.0347 16:154.3095 17:298.1963 18:173.8095 19:295.2143 20:181.3784 21:301.6974 22:150.3095 
-0 -0 -0 -0 -0 0 0 0.01320001861196039 0 1:315 2:140 3:330 4:147 5:335 6:163 7:300 8:156 9:301 10:151 11:317.8944 12:164.7494 13:316.4472 14:152.3747 15:327.2194 16:155.8747 17:329.7447 18:163.8747 19:308.9472 20:168.8155 21:306.3834 22:157.8747 
-0 -0.0239013772057313 -0 -0 -0.0004749933024227174 0 0 0 0 1:316 2:137 3:328 4:141 5:337 6:168 7:285 8:163 9:302 10:142 11:315.3918 12:164.1396 13:315.6959 14:150.5698 15:324.9454 16:152.5698 17:329.4908 18:166.0698 19:300.1959 20:172.1787 21:305.6395 22:153.0698 
-0 -0.02977873803151444 -0 -0.001717958698538401 -5.177915645049893e-005 0.001801598559826604 0 0 0.0004211595765720777 1:303 2:141 3:317 4:143 5:322 6:169 7:321 8:174 9:285 10:181 11:306.6832 12:163.3425 13:304.8416 14:152.1712 15:314.9915 16:153.1712 17:317.5168 18:166.1712 19:313.8416 20:177.5487 21:292.9125 22:172.1712 
-0 -0 -0 -0 -0.002104785657462517 0 0 0 0 1:318 2:138 3:329 4:138 5:340 6:168 7:304 8:166 9:305 10:150 11:321.6292 12:163.0269 13:319.8146 14:150.5134 15:328.6006 16:150.5134 17:334.1562 18:165.5134 19:312.8146 20:173.172 21:310.2125 22:156.5134 
-0.000408342705713929 -0.06390125697365551 -7.181070718481203e-005 -0.001003035884501328 -0 0.0005824050335034919 7.885558867053142e-005 0.01153592416919418 0 1:314 2:146 3:332 4:155 5:334 6:165 7:334 8:178 9:300 10:161 11:317.0144 12:169.5602 13:315.5072 14:157.7801 15:327.7851 16:162.2801 17:328.7951 18:167.2801 19:325.5072 20:182.9264 21:305.4527 22:165.2801 
-0 -0.02002430753921717 -0 -0 -0.000506015907376145 0 0 0 0 1:318 2:138 3:335 4:147 5:335 6:162 7:300 8:193 9:301 10:149 11:317.399 12:161.7104 13:317.6995 14:149.8552 15:329.4945 16:154.3552 17:329.4945 18:161.8552 19:308.6995 20:186.6897 21:306.1382 22:155.3552 
-0 -0 -0 -0.00228840149769521 -0.0001673182358336805 0 0 0 0.001015857862332852 1:312 2:131 3:321 4:133 5:336 6:142 7:272 8:170 9:295 10:139 11:308.7082 12:167.4125 13:310.3541 14:149.2063 15:318.0345 16:150.2063 17:325.6102 18:154.7063 19:290.3541 20:177.5855 21:298.8655 22:153.2063 
-0 -0 -0 -0 -0 0 0 0.02238944021316152 0 1:321 2:138 3:340 4:159 5:307 6:164 7:307 8:150 9:313 10:141 11:323.7405 12:161.6615 13:322.3702 14:149.8307 15:335.2225 16:160.3307 17:318.5558 18:162.8307 19:315.3702 20:164.0324 21:315.218 22:151.3307 
-0 -0 -0 -0 -0 0.001785448478586255 0 0 7.189117589081388e-005 1:311 2:143 3:330 4:152 5:332 6:155 7:282 8:162 9:302 10:146 11:310.8621 12:169.8675 13:310.931 14:156.4338 15:323.6677 16:160.9338 17:324.6778 18:162.4338 19:296.431 20:174.6671 21:303.3971 22:157.9338 
-9.02243893383193e-005 -0 -0 -0 -0 -0 0 0 0 1:284 2:166 3:326 4:176 5:344 6:189 7:266 8:181 9:269 10:176 11:292.106 12:183.9119 13:288.053 14:174.9559 15:312.1747 16:179.9559 17:321.2656 18:186.4559 19:279.053 20:192.0589 21:277.7752 22:179.9559 
-0 -0 -0 -0 -0 -0 0 0 0.001395332349053442 1:271 2:159 3:308 4:160 5:331 6:164 7:257 8:173 9:263 10:164 11:279.7173 12:175.0768 13:275.3587 14:167.0384 15:296.8269 16:167.5384 17:308.4431 18:169.5384 19:268.3587 20:183.1983 21:268.672 22:169.5384 
-0 -0.004868704184606302 -0 -0.0005514771158051291 -0.0005710545722702571 -0.001525878065012279 0 0.003706231312412313 0.01818605739558943 1:310 2:145 3:330 4:150 5:358 6:160 7:277 8:157 9:291 10:147 11:302.5452 12:164.0407 13:306.2726 14:154.5203 15:319.4673 16:157.0203 17:333.6087 18:162.0203 19:289.7726 20:168.9688 21:293.8342 22:155.5203 
-3.869675814756687e-005 -0 -0 -0 -0 -0 0 0 0 1:276 2:228 3:271 4:225 5:262 6:202 7:262 8:199 9:276 10:184 11:290.4475 12:198.8862 13:283.2238 14:213.4431 15:283.5594 16:211.9431 17:279.0139 18:200.4431 19:276.2238 20:209.4138 21:280.4196 22:191.4431 
-0 -0 -0 -0 -0 -0 0 0 0.007167896250940397 1:262 2:184 3:258 4:224 5:255 6:222 7:250 8:208 9:248 10:202 11:271.7503 12:198.8493 13:266.8752 14:191.4247 15:267.5507 16:211.4247 17:266.0355 18:210.4247 19:260.8752 20:214.1312 21:257.3022 22:200.4247 
-0 -0 -9.733103567215853e-005 -0 -0 -0 0 0 0 1:248 2:247 3:239 4:230 5:237 6:224 7:238 8:220 9:247 10:208 11:257.6904 12:221.7353 13:252.8452 14:234.3676 15:250.8537 16:225.8676 17:249.8436 18:222.8676 19:247.8452 20:232.4923 21:249.8468 22:214.8676 
-0 -0 -0 -0 -0 -0 0 0.001079990975080969 0 1:263 2:176 3:260 4:216 5:258 6:216 7:250 8:192 9:253 10:186 11:274.1264 12:190.8913 13:268.5632 14:183.4456 15:269.7608 16:203.4456 17:268.7507 18:203.4456 19:262.0632 20:201.5217 21:260.9536 22:188.4456 
-0.0001739881739396504 -0.003686467541110042 -0.0001616706291131747 -0 -0.0001628818640552718 -0.0002644775483928377 0.0002867308220774669 0.001949750318767555 0.01052822155471165 1:260 2:195 3:294 4:195 5:260 6:236 7:255 8:234 9:250 10:220 11:271.4296 12:209.1868 13:265.7148 14:202.0934 15:285.5705 16:202.0934 17:268.3988 18:222.5934 19:263.2148 20:233.2562 21:258.1335 22:214.5934 
-2.054432116885678e-006 -0.000803426825973997 -0 -0 -0 -0 0.0009847388942259049 0.0006641196456170149 0 1:295 2:187 3:258 4:236 5:247 6:223 7:244 8:208 9:252 10:197 11:272.8746 12:203.7955 13:283.9373 14:195.3977 15:268.1185 16:219.8977 17:262.5629 18:213.3977 19:258.4373 20:216.7345 21:259.8389 22:200.3977 
-0.0002077307347947023 -0.01270848168112027 -0 -0.002643555887269065 -0.0002199743773848581 -0.002379096458511235 0.0005214588859218872 0.002523145008313532 0.009288681482986012 1:299 2:147 3:317 4:148 5:333 6:158 7:336 8:160 9:287 10:157 11:316.2036 12:167.2896 13:307.6018 14:157.1448 15:319.7998 16:157.6448 17:327.8806 18:162.6448 19:326.1018 20:172.2577 21:298.6156 22:162.1448 
-0 -0 -0 -0 -0 -0 -0.0005386107593520172 0.0003479384794321923 0 1:297 2:163 3:276 4:218 5:275 6:215 7:274 8:209 9:276 10:186 11:293.5369 12:201.5229 13:295.2684 14:182.2614 15:287.6449 16:209.7614 17:287.1398 18:208.2614 19:283.7684 20:216.0647 21:281.9489 22:193.7614 
-0.008677657757467741 -0 -0.0001822856295774035 -0 -0 -0 -0 0 0 1:290 2:188 3:267 4:231 5:266 6:227 7:265 8:219 9:266 10:215 11:290.2782 12:228.9702 13:290.1391 14:208.4851 15:281.4536 16:229.9851 17:280.9486 18:227.9851 19:277.6391 20:235.7738 21:275.3853 22:221.9851 
-0.03766187241902671 -0.001127810008348752 -0 -0 -0 -0 -0 0 2.531927551250921e-005 1:336 2:169 3:354 4:207 5:310 6:217 7:307 8:199 9:308 10:197 11:333.5904 12:212.4611 13:334.7952 14:190.7305 15:347.2679 16:209.7305 17:325.0457 18:214.7305 19:320.2952 20:216.5585 21:317.619 22:204.7305 
-0.005333644435249378 -0 -0.0002829323902949207 -0 -0 -0 -5.558669838723792e-005 0 0 1:283 2:200 3:289 4:200 5:290 6:201 7:265 8:231 9:263 10:223 11:288.6378 12:232.5555 13:285.8189 14:216.2777 15:291.7362 16:216.2777 17:292.2413 18:216.7777 19:276.8189 20:243.9766 21:273.088 22:227.7777 
-0.002773933326601408 -0 -0 -0.0001236292022833765 -0.0001298575748090374 -9.179881973465959e-005 -0.000338350822058635 0.000861797060616032 0.0001842292503427884 1:290 2:160 3:294 4:162 5:259 6:214 7:259 8:193 9:288 10:161 11:288.1085 12:208.9885 13:289.0542 14:184.4942 15:293.9942 16:185.4942 17:276.3174 18:211.4942 19:273.5542 20:211.5729 21:285.2022 22:184.9942 
-0.05933565335100264 -0 -0 -0 -0 -0 -0 0 0 1:321 2:167 3:299 4:218 5:297 6:211 7:298 8:196 9:301 10:192 11:322.4722 12:209.377 13:321.7361 14:188.1885 15:313.8748 16:213.6885 17:312.8647 18:210.1885 19:310.2361 20:213.3563 21:308.6496 22:200.6885 
-0 -0.003453409683097466 -9.541376582721732e-005 -3.450226053947627e-005 -0 -0 -0 0.0006391225221414845 0.0001560066515947368 1:284 2:178 3:316 4:190 5:321 6:197 7:325 8:215 9:289 10:215 11:304.168 12:206.8426 13:294.084 14:192.4213 15:313.2162 16:198.4213 17:315.7414 18:201.9213 19:314.584 20:222.0224 21:293.6476 22:210.9213 
-0.008729253672856261 -0.001015076887913398 -0.0001411090669059038 -0 -0 -0 -0 0.0004103732952592723 0 1:296 2:184 3:300 4:184 5:326 6:235 7:278 8:215 9:280 10:211 11:300.7909 12:224.8407 13:298.3954 14:204.4204 15:303.4297 16:204.4204 17:316.5611 18:229.9204 19:289.3954 20:231.4951 21:287.5202 22:217.9204 
-0 -0 -0 -0 -0 -0 -0.0008603803224273684 0 0 1:298 2:166 3:275 4:210 5:274 6:206 7:274 8:204 9:275 10:196 11:296.356 12:205.9646 13:297.178 14:185.9823 15:288.5636 16:207.9823 17:288.0586 18:205.9823 19:285.178 20:215.7708 21:282.8495 22:200.9823 
-0.03408627362855523 -0.0009136499002322611 -0.0001196164683269025 -0 -4.112180876280231e-005 -5.142991574302696e-005 -0 0 0.0001410833219713833 1:359 2:183 3:361 4:183 5:363 6:184 7:332 8:221 9:356 10:185 11:360.9818 12:225.6482 13:359.9909 14:204.3241 15:364.6372 16:204.3241 17:365.6473 18:204.8241 19:346.4909 20:235.078 21:354.9415 22:205.3241 
-0 -0 -0 -0 -0 -0 -0 -0 0.005823418295812216 1:298 2:151 3:318 4:177 5:291 6:190 7:286 8:164 9:286 10:157 11:303.3014 12:179.3375 13:300.6507 14:165.1687 15:313.7886 16:178.1687 17:300.1522 18:184.6687 19:294.6507 20:180.7039 21:291.7334 22:168.1687 
-0 -0.009154774681791123 -0 -0 -0.003071954801370732 -0 -0 -0 0.01020751928507805 1:290 2:127 3:303 4:142 5:310 6:167 7:281 8:179 9:274 10:144 11:293.1663 12:162.6233 13:291.5831 14:144.8116 15:301.0941 16:152.3116 17:304.6294 18:164.8116 19:287.0831 20:179.8017 21:280.7754 22:153.3116 
-0 -0.001945633226301567 -0 -0 -0.002049086548098153 -0.003907594184320795 -0 -0 0 1:307 2:126 3:320 4:139 5:327 6:166 7:290 8:142 9:291 10:136 11:308.7637 12:156.1991 13:307.8818 14:141.0995 15:317.5574 16:147.5995 17:321.0928 18:161.0995 19:299.3818 20:156.9469 21:296.9127 22:146.0995 
-0 -0 -0 -0.0007884350625790969 -0 -0 -0 -0 0 1:295 2:126 3:310 4:134 5:314 6:159 7:280 8:141 9:281 10:137 11:298.581 12:159.4498 13:296.7905 14:142.7249 15:307.3642 16:146.7249 17:309.3844 18:159.2249 19:289.2905 20:158.1315 21:286.9213 22:148.2249 
-0.0005540959333487407 -0 -0.0001996436732873498 -0 -0 -0 -0.004332355034324499 -0.001858037159674915 0.02853467283951748 1:279 2:181 3:291 4:189 5:300 6:216 7:267 8:204 9:266 10:190 11:283.6146 12:210.3254 13:281.3073 14:195.6627 15:290.2094 16:199.6627 17:294.7549 18:213.1627 19:275.3073 20:218.066 21:272.0865 22:200.1627 
-6.810931195686873e-005 -0 -0 -0 -0 -0 -0 -0 0 1:303 2:152 3:321 4:180 5:325 6:192 7:292 8:191 9:289 10:162 11:307.0041 12:186.3048 13:305.002 14:169.1524 15:317.1738 16:183.1524 17:319.194 18:189.1524 19:299.502 20:198.5815 21:295.0515 22:174.1524 
-0 -0 -0 -0 -0 -0.02237126146429202 -0 -0 0.01667925485017183 1:318 2:138 3:338 4:166 5:305 6:160 7:306 8:147 9:309 10:143 11:321.8629 12:165.854 13:319.9315 14:151.927 15:333.2641 16:165.927 17:316.5974 18:162.927 19:313.9315 20:164.66 21:312.3084 22:154.427 
-0 -0 -0 -0 -0 -0 -0.001495854456169608 -0 0 1:315 2:144 3:335 4:173 5:336 6:177 7:300 8:154 9:301 10:150 11:319.2184 12:172.4013 13:317.1092 14:158.2007 15:330.4133 16:172.7007 17:330.9184 18:174.7007 19:309.6092 20:171.7902 21:307.0388 22:161.2007 
-0 -0.02072434020681233 -0 -0.002911598317159034 -0 -0 -0.003148019452603374 -0 0.01266529458549256 1:291 2:128 3:306 4:138 5:311 6:162 7:277 8:152 9:276 10:143 11:294.3318 12:161.2001 13:292.6659 14:144.6001 15:303.1979 16:149.6001 17:305.7231 18:161.6001 19:285.6659 20:164.8422 21:282.3425 22:152.1001 
-0 -0 -0 -0 -0 -0.00999495221073083 -0 -0 0 1:320 2:141 3:334 4:145 5:341 6:170 7:306 8:152 9:307 10:147 11:324.2242 12:168.7902 13:322.1121 14:154.8951 15:332.4365 16:156.8951 17:335.9718 18:169.3951 19:315.1121 20:168.8369 21:312.4872 22:157.8951 
-0.0004547035003526536 -0.01271039681340738 -0 -0 -0 -0.01091435394082216 -0.000947008317093905 -0.0004011941977740657 0 1:315 2:144 3:329 4:151 5:336 6:173 7:338 8:184 9:301 10:157 11:320.2111 12:173.5724 13:317.6055 14:158.7862 15:327.8844 16:162.2862 17:331.4197 18:173.2862 19:329.1055 20:188.196 21:307.5302 22:165.2862 
-0 -0 -0 -0.0006992395420664534 -0 -0 -0 -0 -0 1:272 2:152 3:294 4:169 5:299 6:178 7:263 8:183 9:259 10:174 11:279.9687 12:175.951 13:275.9844 14:163.9755 15:289.8832 16:172.4755 17:292.4084 18:176.9755 19:271.4844 20:188.9216 21:266.8162 22:174.9755 
-0 -0.02721719476745196 -0 -0.003749420288788846 -0.001118251247161116 -0.001685355941504412 -0 -0 -0 1:302 2:140 3:316 4:143 5:325 6:152 7:275 8:187 9:288 10:147 11:307.5959 12:177.1669 13:304.798 14:158.5835 15:314.9474 16:160.0835 17:319.4929 18:164.5835 19:291.298 20:191.6668 21:294.8495 22:162.0835 
-0 -0.02606023598674718 -0 -0 -0 -0 -0.01102852775770144 -0 -0 1:294 2:160 3:316 4:176 5:318 6:185 7:284 8:191 9:276 10:169 11:299.1916 12:177.8297 13:296.5958 14:168.9148 15:310.7029 16:176.9148 17:311.713 18:181.4148 19:291.5958 20:194.1209 21:284.7484 22:173.4148 
-0 -0 -0 -0.0001527477622711077 -0.0007893557845986154 -0.0001598035329297291 -0.0002973863811829451 -0 -0.01922802077121737 1:296 2:139 3:307 4:143 5:260 6:185 7:279 8:147 9:281 10:145 11:296.2793 12:179.7749 13:296.1396 14:159.3875 15:304.6865 16:161.3875 17:280.9491 18:182.3875 19:287.6396 20:171.9868 21:285.7818 22:162.3875 
-0 -0.009263340823511863 -0 -0 -0 -0 -0.005577190615923816 -0 -0 1:287 2:154 3:308 4:168 5:315 6:181 7:273 8:181 9:273 10:178 11:295.8774 12:178.8476 13:291.4387 14:166.4238 15:304.9886 16:173.4238 17:308.524 18:179.9238 19:284.4387 20:189.3935 21:281.6225 22:178.4238 
-0 -0 -0 -0 -0.0001104685292976596 -0 -0 -0 -0.02629699413013873 1:273 2:154 3:294 4:169 5:300 6:179 7:265 8:186 9:262 10:163 11:280.6707 12:177.3131 13:276.8353 14:165.6566 15:290.2377 16:173.1566 17:293.268 18:178.1566 19:272.8353 20:191.2174 21:268.6488 22:170.1566 
-0 -0 -0 -0 -0 -0 -0.02094375289791838 -0 -0.00130806972618448 1:275 2:161 3:290 4:165 5:302 6:184 7:268 8:185 9:263 10:173 11:283.7057 12:181.4129 13:279.3529 14:171.2065 15:289.7504 16:173.2065 17:295.811 18:182.7065 19:275.8529 20:192.8489 21:270.6464 22:177.2065 
-0.0015637133922971 -0.005819084361165844 -0.0001544433118210228 -0 -0 -0 -0.008719331380554371 -0.0005066384994214176 -0.02707707522853155 1:306 2:164 3:330 4:180 5:335 6:190 7:294 8:188 9:296 10:176 11:316.8168 12:189.1254 13:311.4084 14:176.5627 15:326.6751 16:184.5627 17:329.2004 18:189.5627 19:305.4084 20:198.487 21:303.3746 22:182.5627 
